<?xml version="1.0"?>
<opencv_storage>
<cascade>
  <stageType>BOOST</stageType>
  <featureType>HAAR</featureType>
  <height>20</height>
  <width>20</width>
  <stageParams>
    <boostType>GAB</boostType>
    <minHitRate>9.9500000476837158e-01</minHitRate>
    <maxFalseAlarm>5.0000000000000000e-01</maxFalseAlarm>
    <weightTrimRate>9.4999999999999996e-01</weightTrimRate>
    <maxDepth>1</maxDepth>
    <maxWeakCount>100</maxWeakCount></stageParams>
  <featureParams>
    <maxCatCount>0</maxCatCount>
    <featSize>1</featSize>
    <mode>BASIC</mode></featureParams>
  <stageNum>15</stageNum>
  <stages>
    <!-- stage 0 -->
    <_>
      <maxWeakCount>4</maxWeakCount>
      <stageThreshold>-1.2353669404983521e+00</stageThreshold>
      <weakClassifiers>
        <_>
          <internalNodes>
            0 -1 158 2.4779904633760452e-03</internalNodes>
          <leafValues>
            -7.2911393642425537e-01 7.7277487516403198e-01</leafValues></_>
        <_>
          <internalNodes>
            0 -1 48 2.7491704095155001e-03</internalNodes>
          <leafValues>
            -6.3268274068832397e-01 6.2518155574798584e-01</leafValues></_>
        <_>
          <internalNodes>
            0 -1 74 4.1052689775824547e-03</internalNodes>
          <leafValues>
            -6.3963305950164795e-01 4.7024056315422058e-01</leafValues></_>
        <_>
          <internalNodes>
            0 -1 64 -1.4546453952789307e-02</internalNodes>
          <leafValues>
            5.4038578271865845e-01 -4.9180155992507935e-01</leafValues></_></weakClassifiers></_>
    <!-- stage 1 -->
    <_>
      <maxWeakCount>8</maxWeakCount>
      <stageThreshold>-1.1401444673538208e+00</stageThreshold>
      <weakClassifiers>
        <_>
          <internalNodes>
            0 -1 155 8.9164786040782928e-03</internalNodes>
          <leafValues>
            -6.2650603055953979e-01 6.4636540412902832e-01</leafValues></_>
        <_>
          <internalNodes>
            0 -1 26 -9.4954967498779297e-02</internalNodes>
          <leafValues>
            6.0121381282806396e-01 -5.2706593275070190e-01</leafValues></_>
        <_>
          <internalNodes>
            0 -1 57 2.5790869258344173e-03</internalNodes>
          <leafValues>
            -5.4625213146209717e-01 4.4366884231567383e-01</leafValues></_>
        <_>
          <internalNodes>
            0 -1 71 3.7654712796211243e-03</internalNodes>
          <leafValues>
            -5.6494760513305664e-01 3.0506822466850281e-01</leafValues></_>
        <_>
          <internalNodes>
            0 -1 38 2.7149215340614319e-02</internalNodes>
          <leafValues>
            -3.0460131168365479e-01 6.3664591312408447e-01</leafValues></_>
        <_>
          <internalNodes>
            0 -1 65 -5.7909195311367512e-03</internalNodes>
          <leafValues>
            4.5886206626892090e-01 -4.0861356258392334e-01</leafValues></_>
        <_>
          <internalNodes>
            0 -1 205 -9.6715189283713698e-04</internalNodes>
          <leafValues>
            4.9606558680534363e-01 -3.0079832673072815e-01</leafValues></_>
        <_>
          <internalNodes>
            0 -1 18 6.3072971533983946e-04</internalNodes>
          <leafValues>
            -3.4031045436859131e-01 4.0052929520606995e-01</leafValues></_></weakClassifiers></_>
    <!-- stage 2 -->
    <_>
      <maxWeakCount>11</maxWeakCount>
      <stageThreshold>-1.2245959043502808e+00</stageThreshold>
      <weakClassifiers>
        <_>
          <internalNodes>
            0 -1 175 -4.8875790089368820e-03</internalNodes>
          <leafValues>
            5.9526157379150391e-01 -4.5400592684745789e-01</leafValues></_>
        <_>
          <internalNodes>
            0 -1 53 1.7675053328275681e-02</internalNodes>
          <leafValues>
            -4.1005054116249084e-01 4.7021210193634033e-01</leafValues></_>
        <_>
          <internalNodes>
            0 -1 109 1.4969396870583296e-03</internalNodes>
          <leafValues>
            -6.7100650072097778e-01 2.8932473063468933e-01</leafValues></_>
        <_>
          <internalNodes>
            0 -1 28 2.1833134815096855e-02</internalNodes>
          <leafValues>
            -6.0006773471832275e-01 2.6486897468566895e-01</leafValues></_>
        <_>
          <internalNodes>
            0 -1 188 3.2074933405965567e-03</internalNodes>
          <leafValues>
            -3.9655396342277527e-01 3.4520930051803589e-01</leafValues></_>
        <_>
          <internalNodes>
            0 -1 10 8.5761025547981262e-03</internalNodes>
          <leafValues>
            -2.2701510787010193e-01 6.6308361291885376e-01</leafValues></_>
        <_>
          <internalNodes>
            0 -1 1 1.0832924395799637e-02</internalNodes>
          <leafValues>
            -2.9151621460914612e-01 6.1483776569366455e-01</leafValues></_>
        <_>
          <internalNodes>
            0 -1 116 1.9065134227275848e-02</internalNodes>
          <leafValues>
            1.4740346372127533e-01 -8.4562706947326660e-01</leafValues></_>
        <_>
          <internalNodes>
            0 -1 148 -8.6819827556610107e-03</internalNodes>
          <leafValues>
            -8.9097434282302856e-01 1.4325565099716187e-01</leafValues></_>
        <_>
          <internalNodes>
            0 -1 174 1.0308494791388512e-02</internalNodes>
          <leafValues>
            1.3652402162551880e-01 -7.6844835281372070e-01</leafValues></_>
        <_>
          <internalNodes>
            0 -1 153 3.7978724576532841e-03</internalNodes>
          <leafValues>
            -3.0365753173828125e-01 4.3060606718063354e-01</leafValues></_></weakClassifiers></_>
    <!-- stage 3 -->
    <_>
      <maxWeakCount>12</maxWeakCount>
      <stageThreshold>-9.3311345577239990e-01</stageThreshold>
      <weakClassifiers>
        <_>
          <internalNodes>
            0 -1 157 7.0001557469367981e-03</internalNodes>
          <leafValues>
            -5.6626504659652710e-01 5.3678476810455322e-01</leafValues></_>
        <_>
          <internalNodes>
            0 -1 69 9.5822121948003769e-03</internalNodes>
          <leafValues>
            -4.0109562873840332e-01 4.5181313157081604e-01</leafValues></_>
        <_>
          <internalNodes>
            0 -1 15 6.9381655193865299e-03</internalNodes>
          <leafValues>
            -3.0399650335311890e-01 5.9883034229278564e-01</leafValues></_>
        <_>
          <internalNodes>
            0 -1 172 3.8085454143583775e-03</internalNodes>
          <leafValues>
            -3.4482756257057190e-01 5.0498807430267334e-01</leafValues></_>
        <_>
          <internalNodes>
            0 -1 3 1.4446070417761803e-02</internalNodes>
          <leafValues>
            -1.8845888972282410e-01 7.5215804576873779e-01</leafValues></_>
        <_>
          <internalNodes>
            0 -1 25 1.0445372760295868e-01</internalNodes>
          <leafValues>
            -2.0156803727149963e-01 6.8916869163513184e-01</leafValues></_>
        <_>
          <internalNodes>
            0 -1 159 4.6537816524505615e-03</internalNodes>
          <leafValues>
            -4.8607853055000305e-01 3.0681201815605164e-01</leafValues></_>
        <_>
          <internalNodes>
            0 -1 188 3.5502058453857899e-03</internalNodes>
          <leafValues>
            -3.5790812969207764e-01 3.1081444025039673e-01</leafValues></_>
        <_>
          <internalNodes>
            0 -1 47 4.6489629894495010e-02</internalNodes>
          <leafValues>
            1.4180994033813477e-01 -8.0688142776489258e-01</leafValues></_>
        <_>
          <internalNodes>
            0 -1 117 1.1024387553334236e-02</internalNodes>
          <leafValues>
            1.3529992103576660e-01 -7.7718591690063477e-01</leafValues></_>
        <_>
          <internalNodes>
            0 -1 56 5.9288289776304737e-05</internalNodes>
          <leafValues>
            -5.5764466524124146e-01 1.7352966964244843e-01</leafValues></_>
        <_>
          <internalNodes>
            0 -1 113 3.0200753360986710e-02</internalNodes>
          <leafValues>
            -2.3627901077270508e-01 5.1906347274780273e-01</leafValues></_></weakClassifiers></_>
    <!-- stage 4 -->
    <_>
      <maxWeakCount>15</maxWeakCount>
      <stageThreshold>-1.0283622741699219e+00</stageThreshold>
      <weakClassifiers>
        <_>
          <internalNodes>
            0 -1 45 -2.2854339331388474e-02</internalNodes>
          <leafValues>
            5.3779906034469604e-01 -3.6721310019493103e-01</leafValues></_>
        <_>
          <internalNodes>
            0 -1 166 1.6696343664079905e-03</internalNodes>
          <leafValues>
            -4.9051916599273682e-01 3.0381685495376587e-01</leafValues></_>
        <_>
          <internalNodes>
            0 -1 179 -1.1412786319851875e-02</internalNodes>
          <leafValues>
            3.6519971489906311e-01 -3.7291234731674194e-01</leafValues></_>
        <_>
          <internalNodes>
            0 -1 76 7.5821904465556145e-04</internalNodes>
          <leafValues>
            -4.6705400943756104e-01 2.8516682982444763e-01</leafValues></_>
        <_>
          <internalNodes>
            0 -1 145 9.9139325320720673e-03</internalNodes>
          <leafValues>
            1.1474865674972534e-01 -8.7593454122543335e-01</leafValues></_>
        <_>
          <internalNodes>
            0 -1 219 -7.9309111461043358e-03</internalNodes>
          <leafValues>
            5.4390406608581543e-01 -2.3045860230922699e-01</leafValues></_>
        <_>
          <internalNodes>
            0 -1 44 -1.3556983321905136e-02</internalNodes>
          <leafValues>
            7.0173573493957520e-01 -1.9435603916645050e-01</leafValues></_>
        <_>
          <internalNodes>
            0 -1 95 -1.8117979168891907e-02</internalNodes>
          <leafValues>
            -7.7637130022048950e-01 1.8399202823638916e-01</leafValues></_>
        <_>
          <internalNodes>
            0 -1 147 -1.4007715508341789e-02</internalNodes>
          <leafValues>
            -7.7417159080505371e-01 1.1577586084604263e-01</leafValues></_>
        <_>
          <internalNodes>
            0 -1 60 -2.4007409811019897e-02</internalNodes>
          <leafValues>
            4.9118429422378540e-01 -2.1963936090469360e-01</leafValues></_>
        <_>
          <internalNodes>
            0 -1 90 1.5093777328729630e-02</internalNodes>
          <leafValues>
            -2.4318230152130127e-01 4.9077290296554565e-01</leafValues></_>
        <_>
          <internalNodes>
            0 -1 131 6.1047356575727463e-03</internalNodes>
          <leafValues>
            -5.2567815780639648e-01 2.3628665506839752e-01</leafValues></_>
        <_>
          <internalNodes>
            0 -1 108 4.0175136178731918e-02</internalNodes>
          <leafValues>
            1.3120442628860474e-01 -7.5191897153854370e-01</leafValues></_>
        <_>
          <internalNodes>
            0 -1 42 -8.1951841711997986e-03</internalNodes>
          <leafValues>
            5.6258714199066162e-01 -1.9355915486812592e-01</leafValues></_>
        <_>
          <internalNodes>
            0 -1 87 1.2098547071218491e-02</internalNodes>
          <leafValues>
            -2.6072883605957031e-01 4.0618336200714111e-01</leafValues></_></weakClassifiers></_>
    <!-- stage 5 -->
    <_>
      <maxWeakCount>14</maxWeakCount>
      <stageThreshold>-9.4855165481567383e-01</stageThreshold>
      <weakClassifiers>
        <_>
          <internalNodes>
            0 -1 17 -1.1165470816195011e-02</internalNodes>
          <leafValues>
            -7.5000000000000000e-01 4.6268656849861145e-01</leafValues></_>
        <_>
          <internalNodes>
            0 -1 46 -5.4115131497383118e-02</internalNodes>
          <leafValues>
            4.6413671970367432e-01 -3.1802564859390259e-01</leafValues></_>
        <_>
          <internalNodes>
            0 -1 13 5.7765897363424301e-03</internalNodes>
          <leafValues>
            -2.0961017906665802e-01 5.0414079427719116e-01</leafValues></_>
        <_>
          <internalNodes>
            0 -1 125 -1.6785466577857733e-03</internalNodes>
          <leafValues>
            3.2602798938751221e-01 -3.5556998848915100e-01</leafValues></_>
        <_>
          <internalNodes>
            0 -1 6 4.6609919518232346e-03</internalNodes>
          <leafValues>
            -2.5760155916213989e-01 4.3614068627357483e-01</leafValues></_>
        <_>
          <internalNodes>
            0 -1 172 6.5552382729947567e-03</internalNodes>
          <leafValues>
            -2.2849513590335846e-01 4.6980646252632141e-01</leafValues></_>
        <_>
          <internalNodes>
            0 -1 114 -2.4399753659963608e-02</internalNodes>
          <leafValues>
            -8.0452114343643188e-01 1.4632375538349152e-01</leafValues></_>
        <_>
          <internalNodes>
            0 -1 203 -7.3329322040081024e-03</internalNodes>
          <leafValues>
            4.3435096740722656e-01 -2.3294740915298462e-01</leafValues></_>
        <_>
          <internalNodes>
            0 -1 165 8.0555572640150785e-04</internalNodes>
          <leafValues>
            1.4765389263629913e-01 -7.0486688613891602e-01</leafValues></_>
        <_>
          <internalNodes>
            0 -1 86 1.5552676282823086e-02</internalNodes>
          <leafValues>
            -2.5140613317489624e-01 4.2371848225593567e-01</leafValues></_>
        <_>
          <internalNodes>
            0 -1 79 -1.0143917053937912e-02</internalNodes>
          <leafValues>
            5.0704777240753174e-01 -2.4794280529022217e-01</leafValues></_>
        <_>
          <internalNodes>
            0 -1 63 8.5493162274360657e-02</internalNodes>
          <leafValues>
            -1.5196560323238373e-01 7.5818276405334473e-01</leafValues></_>
        <_>
          <internalNodes>
            0 -1 129 1.4398605562746525e-03</internalNodes>
          <leafValues>
            -2.9521638154983521e-01 3.5632565617561340e-01</leafValues></_>
        <_>
          <internalNodes>
            0 -1 220 -3.3684261143207550e-04</internalNodes>
          <leafValues>
            2.7699175477027893e-01 -3.7774518132209778e-01</leafValues></_></weakClassifiers></_>
    <!-- stage 6 -->
    <_>
      <maxWeakCount>14</maxWeakCount>
      <stageThreshold>-1.0796096324920654e+00</stageThreshold>
      <weakClassifiers>
        <_>
          <internalNodes>
            0 -1 175 -8.6677996441721916e-03</internalNodes>
          <leafValues>
            5.8389264345169067e-01 -3.0275228619575500e-01</leafValues></_>
        <_>
          <internalNodes>
            0 -1 55 -4.0344111621379852e-02</internalNodes>
          <leafValues>
            4.4240531325340271e-01 -3.2018762826919556e-01</leafValues></_>
        <_>
          <internalNodes>
            0 -1 19 2.9021976515650749e-03</internalNodes>
          <leafValues>
            -2.8001409769058228e-01 4.6405401825904846e-01</leafValues></_>
        <_>
          <internalNodes>
            0 -1 167 1.0893561411648989e-03</internalNodes>
          <leafValues>
            -4.4172590970993042e-01 2.7837726473808289e-01</leafValues></_>
        <_>
          <internalNodes>
            0 -1 212 -9.7150392830371857e-03</internalNodes>
          <leafValues>
            4.6631920337677002e-01 -2.6599755883216858e-01</leafValues></_>
        <_>
          <internalNodes>
            0 -1 135 -2.2378765046596527e-02</internalNodes>
          <leafValues>
            -8.6556035280227661e-01 1.4852818846702576e-01</leafValues></_>
        <_>
          <internalNodes>
            0 -1 51 1.0101325809955597e-02</internalNodes>
          <leafValues>
            -4.4737949967384338e-01 1.9693264365196228e-01</leafValues></_>
        <_>
          <internalNodes>
            0 -1 9 1.8165268003940582e-02</internalNodes>
          <leafValues>
            -2.2149582207202911e-01 4.4312012195587158e-01</leafValues></_>
        <_>
          <internalNodes>
            0 -1 101 7.5539229437708855e-03</internalNodes>
          <leafValues>
            -2.2001776099205017e-01 6.0713070631027222e-01</leafValues></_>
        <_>
          <internalNodes>
            0 -1 120 9.4168977811932564e-03</internalNodes>
          <leafValues>
            1.2933610379695892e-01 -8.2096415758132935e-01</leafValues></_>
        <_>
          <internalNodes>
            0 -1 119 -1.1631404049694538e-02</internalNodes>
          <leafValues>
            -7.4360191822052002e-01 1.3688008487224579e-01</leafValues></_>
        <_>
          <internalNodes>
            0 -1 171 2.6959592942148447e-03</internalNodes>
          <leafValues>
            -3.9877444505691528e-01 2.4150879681110382e-01</leafValues></_>
        <_>
          <internalNodes>
            0 -1 184 9.6123320981860161e-03</internalNodes>
          <leafValues>
            1.1509586870670319e-01 -8.1546521186828613e-01</leafValues></_>
        <_>
          <internalNodes>
            0 -1 202 3.9587672799825668e-03</internalNodes>
          <leafValues>
            -2.5835654139518738e-01 4.0967535972595215e-01</leafValues></_></weakClassifiers></_>
    <!-- stage 7 -->
    <_>
      <maxWeakCount>15</maxWeakCount>
      <stageThreshold>-1.0852606296539307e+00</stageThreshold>
      <weakClassifiers>
        <_>
          <internalNodes>
            0 -1 177 1.4995511155575514e-03</internalNodes>
          <leafValues>
            -6.2827222049236298e-02 6.2548261880874634e-01</leafValues></_>
        <_>
          <internalNodes>
            0 -1 26 -1.7482477426528931e-01</internalNodes>
          <leafValues>
            4.4438743591308594e-01 -2.4371656775474548e-01</leafValues></_>
        <_>
          <internalNodes>
            0 -1 210 -2.3516232613474131e-03</internalNodes>
          <leafValues>
            6.2850946187973022e-01 -1.5685255825519562e-01</leafValues></_>
        <_>
          <internalNodes>
            0 -1 73 1.3549628201872110e-03</internalNodes>
          <leafValues>
            -6.8240988254547119e-01 1.3029979169368744e-01</leafValues></_>
        <_>
          <internalNodes>
            0 -1 41 1.3706708326935768e-02</internalNodes>
          <leafValues>
            -1.8403451144695282e-01 4.8817762732505798e-01</leafValues></_>
        <_>
          <internalNodes>
            0 -1 99 -6.3799964264035225e-03</internalNodes>
          <leafValues>
            4.3966433405876160e-01 -2.6247015595436096e-01</leafValues></_>
        <_>
          <internalNodes>
            0 -1 44 -7.6676155440509319e-03</internalNodes>
          <leafValues>
            4.6001684665679932e-01 -2.2696776688098907e-01</leafValues></_>
        <_>
          <internalNodes>
            0 -1 191 7.5702171307057142e-04</internalNodes>
          <leafValues>
            -2.6040431857109070e-01 3.3943411707878113e-01</leafValues></_>
        <_>
          <internalNodes>
            0 -1 181 -4.0241787210106850e-03</internalNodes>
          <leafValues>
            -8.0587446689605713e-01 1.0175962746143341e-01</leafValues></_>
        <_>
          <internalNodes>
            0 -1 105 -7.4671525508165359e-03</internalNodes>
          <leafValues>
            4.4242033362388611e-01 -1.8938235938549042e-01</leafValues></_>
        <_>
          <internalNodes>
            0 -1 107 -5.2305627614259720e-03</internalNodes>
          <leafValues>
            5.8836573362350464e-01 -1.6297265887260437e-01</leafValues></_>
        <_>
          <internalNodes>
            0 -1 85 -1.7613889649510384e-03</internalNodes>
          <leafValues>
            3.6290532350540161e-01 -3.0050668120384216e-01</leafValues></_>
        <_>
          <internalNodes>
            0 -1 5 6.3851270824670792e-03</internalNodes>
          <leafValues>
            -1.7665387690067291e-01 5.0978642702102661e-01</leafValues></_>
        <_>
          <internalNodes>
            0 -1 134 4.3591123074293137e-02</internalNodes>
          <leafValues>
            1.0188653320074081e-01 -8.8539069890975952e-01</leafValues></_>
        <_>
          <internalNodes>
            0 -1 146 -7.3204822838306427e-03</internalNodes>
          <leafValues>
            -7.6987797021865845e-01 1.0544753074645996e-01</leafValues></_></weakClassifiers></_>
    <!-- stage 8 -->
    <_>
      <maxWeakCount>20</maxWeakCount>
      <stageThreshold>-9.4390374422073364e-01</stageThreshold>
      <weakClassifiers>
        <_>
          <internalNodes>
            0 -1 115 2.5977091863751411e-03</internalNodes>
          <leafValues>
            -2.9194632172584534e-01 5.1045626401901245e-01</leafValues></_>
        <_>
          <internalNodes>
            0 -1 56 7.1330257924273610e-05</internalNodes>
          <leafValues>
            -5.9479260444641113e-01 2.1409562230110168e-01</leafValues></_>
        <_>
          <internalNodes>
            0 -1 189 -4.1140583343803883e-03</internalNodes>
          <leafValues>
            2.9850316047668457e-01 -3.5637941956520081e-01</leafValues></_>
        <_>
          <internalNodes>
            0 -1 14 7.7222436666488647e-03</internalNodes>
          <leafValues>
            -1.9904315471649170e-01 5.1534634828567505e-01</leafValues></_>
        <_>
          <internalNodes>
            0 -1 43 -2.9321705922484398e-02</internalNodes>
          <leafValues>
            6.5180683135986328e-01 -1.7815686762332916e-01</leafValues></_>
        <_>
          <internalNodes>
            0 -1 11 1.4273804426193237e-01</internalNodes>
          <leafValues>
            -1.6702584922313690e-01 6.8417519330978394e-01</leafValues></_>
        <_>
          <internalNodes>
            0 -1 128 1.6220565885305405e-02</internalNodes>
          <leafValues>
            -5.1657277345657349e-01 2.1898119151592255e-01</leafValues></_>
        <_>
          <internalNodes>
            0 -1 119 2.6737821754068136e-03</internalNodes>
          <leafValues>
            1.4877635240554810e-01 -6.1014360189437866e-01</leafValues></_>
        <_>
          <internalNodes>
            0 -1 24 4.9387089908123016e-02</internalNodes>
          <leafValues>
            -2.2281646728515625e-01 4.4532310962677002e-01</leafValues></_>
        <_>
          <internalNodes>
            0 -1 165 -1.0694775730371475e-02</internalNodes>
          <leafValues>
            -8.6145949363708496e-01 1.3197650015354156e-01</leafValues></_>
        <_>
          <internalNodes>
            0 -1 206 5.1345378160476685e-03</internalNodes>
          <leafValues>
            -1.6213627159595490e-01 6.1703264713287354e-01</leafValues></_>
        <_>
          <internalNodes>
            0 -1 89 1.4827770181000233e-02</internalNodes>
          <leafValues>
            9.3295685946941376e-02 -9.2786157131195068e-01</leafValues></_>
        <_>
          <internalNodes>
            0 -1 193 -1.2740088859573007e-03</internalNodes>
          <leafValues>
            2.3277549445629120e-01 -3.3550828695297241e-01</leafValues></_>
        <_>
          <internalNodes>
            0 -1 4 7.8148394823074341e-03</internalNodes>
          <leafValues>
            -2.1723535656929016e-01 3.9195039868354797e-01</leafValues></_>
        <_>
          <internalNodes>
            0 -1 31 4.8012435436248779e-02</internalNodes>
          <leafValues>
            -2.4455118179321289e-01 3.4087145328521729e-01</leafValues></_>
        <_>
          <internalNodes>
            0 -1 77 1.2147112283855677e-03</internalNodes>
          <leafValues>
            -2.5533330440521240e-01 3.0089202523231506e-01</leafValues></_>
        <_>
          <internalNodes>
            0 -1 197 -9.9856359884142876e-04</internalNodes>
          <leafValues>
            3.9137724041938782e-01 -1.9403159618377686e-01</leafValues></_>
        <_>
          <internalNodes>
            0 -1 111 -3.9619700983166695e-03</internalNodes>
          <leafValues>
            -6.3903188705444336e-01 1.2551063299179077e-01</leafValues></_>
        <_>
          <internalNodes>
            0 -1 214 4.4538844376802444e-03</internalNodes>
          <leafValues>
            -1.8733382225036621e-01 4.1807094216346741e-01</leafValues></_>
        <_>
          <internalNodes>
            0 -1 35 1.0688120499253273e-02</internalNodes>
          <leafValues>
            9.1788537800312042e-02 -8.5539025068283081e-01</leafValues></_></weakClassifiers></_>
    <!-- stage 9 -->
    <_>
      <maxWeakCount>20</maxWeakCount>
      <stageThreshold>-8.6776447296142578e-01</stageThreshold>
      <weakClassifiers>
        <_>
          <internalNodes>
            0 -1 178 -4.2071044445037842e-03</internalNodes>
          <leafValues>
            5.9236454963684082e-01 -5.7620819658041000e-02</leafValues></_>
        <_>
          <internalNodes>
            0 -1 94 -1.5301161445677280e-02</internalNodes>
          <leafValues>
            3.5812196135520935e-01 -3.0115762352943420e-01</leafValues></_>
        <_>
          <internalNodes>
            0 -1 201 1.7167063197121024e-03</internalNodes>
          <leafValues>
            -3.2945498824119568e-01 2.9498675465583801e-01</leafValues></_>
        <_>
          <internalNodes>
            0 -1 84 7.1819454431533813e-02</internalNodes>
          <leafValues>
            -1.2936896085739136e-01 7.1057307720184326e-01</leafValues></_>
        <_>
          <internalNodes>
            0 -1 59 1.1799586936831474e-02</internalNodes>
          <leafValues>
            -2.3059281706809998e-01 3.8054269552230835e-01</leafValues></_>
        <_>
          <internalNodes>
            0 -1 67 9.6759002190083265e-04</internalNodes>
          <leafValues>
            -2.6314267516136169e-01 3.0813223123550415e-01</leafValues></_>
        <_>
          <internalNodes>
            0 -1 180 6.3077628146857023e-04</internalNodes>
          <leafValues>
            -4.1802710294723511e-01 1.7070338129997253e-01</leafValues></_>
        <_>
          <internalNodes>
            0 -1 162 -1.9375186413526535e-02</internalNodes>
          <leafValues>
            -7.7923554182052612e-01 1.1059141159057617e-01</leafValues></_>
        <_>
          <internalNodes>
            0 -1 96 6.3157342374324799e-03</internalNodes>
          <leafValues>
            1.2750361859798431e-01 -5.7248973846435547e-01</leafValues></_>
        <_>
          <internalNodes>
            0 -1 103 -3.9476607926189899e-03</internalNodes>
          <leafValues>
            3.3723098039627075e-01 -2.5817596912384033e-01</leafValues></_>
        <_>
          <internalNodes>
            0 -1 33 -3.9348565042018890e-03</internalNodes>
          <leafValues>
            -8.4914773702621460e-01 1.0266690701246262e-01</leafValues></_>
        <_>
          <internalNodes>
            0 -1 82 1.2512544170022011e-02</internalNodes>
          <leafValues>
            -1.4486642181873322e-01 5.4728549718856812e-01</leafValues></_>
        <_>
          <internalNodes>
            0 -1 21 1.2368806637823582e-03</internalNodes>
          <leafValues>
            -3.1370690464973450e-01 3.1245130300521851e-01</leafValues></_>
        <_>
          <internalNodes>
            0 -1 39 1.7111115157604218e-03</internalNodes>
          <leafValues>
            -2.6899629831314087e-01 2.6643174886703491e-01</leafValues></_>
        <_>
          <internalNodes>
            0 -1 16 2.3292936384677887e-02</internalNodes>
          <leafValues>
            9.2559017241001129e-02 -7.2200584411621094e-01</leafValues></_>
        <_>
          <internalNodes>
            0 -1 2 -9.4795301556587219e-03</internalNodes>
          <leafValues>
            -6.4991623163223267e-01 9.1718591749668121e-02</leafValues></_>
        <_>
          <internalNodes>
            0 -1 40 -6.2184437410905957e-05</internalNodes>
          <leafValues>
            -4.2029285430908203e-01 1.5660808980464935e-01</leafValues></_>
        <_>
          <internalNodes>
            0 -1 164 1.9967652857303619e-02</internalNodes>
          <leafValues>
            8.8975757360458374e-02 -7.1583944559097290e-01</leafValues></_>
        <_>
          <internalNodes>
            0 -1 102 5.4551409557461739e-03</internalNodes>
          <leafValues>
            -1.6679064929485321e-01 4.5550462603569031e-01</leafValues></_>
        <_>
          <internalNodes>
            0 -1 204 2.1806154400110245e-03</internalNodes>
          <leafValues>
            -1.8693591654300690e-01 3.8693240284919739e-01</leafValues></_></weakClassifiers></_>
    <!-- stage 10 -->
    <_>
      <maxWeakCount>22</maxWeakCount>
      <stageThreshold>-9.7620028257369995e-01</stageThreshold>
      <weakClassifiers>
        <_>
          <internalNodes>
            0 -1 158 4.0026828646659851e-03</internalNodes>
          <leafValues>
            -3.3177569508552551e-01 4.5862674713134766e-01</leafValues></_>
        <_>
          <internalNodes>
            0 -1 54 -4.6045191586017609e-02</internalNodes>
          <leafValues>
            4.2695030570030212e-01 -2.4694183468818665e-01</leafValues></_>
        <_>
          <internalNodes>
            0 -1 75 7.2220695437863469e-04</internalNodes>
          <leafValues>
            -4.2522364854812622e-01 2.2381080687046051e-01</leafValues></_>
        <_>
          <internalNodes>
            0 -1 25 1.5900509059429169e-01</internalNodes>
          <leafValues>
            -1.5690855681896210e-01 5.6672120094299316e-01</leafValues></_>
        <_>
          <internalNodes>
            0 -1 217 2.4540461599826813e-03</internalNodes>
          <leafValues>
            -2.2793260216712952e-01 4.1304999589920044e-01</leafValues></_>
        <_>
          <internalNodes>
            0 -1 57 2.5302825961261988e-03</internalNodes>
          <leafValues>
            -4.6137002110481262e-01 1.8283575773239136e-01</leafValues></_>
        <_>
          <internalNodes>
            0 -1 172 5.6879306212067604e-03</internalNodes>
          <leafValues>
            -2.5079965591430664e-01 3.3808079361915588e-01</leafValues></_>
        <_>
          <internalNodes>
            0 -1 190 2.0320139825344086e-02</internalNodes>
          <leafValues>
            8.8104084134101868e-02 -7.8590607643127441e-01</leafValues></_>
        <_>
          <internalNodes>
            0 -1 207 -7.9426774755120277e-03</internalNodes>
          <leafValues>
            5.5238622426986694e-01 -1.4594291150569916e-01</leafValues></_>
        <_>
          <internalNodes>
            0 -1 23 1.8271308392286301e-02</internalNodes>
          <leafValues>
            9.3322657048702240e-02 -7.9730647802352905e-01</leafValues></_>
        <_>
          <internalNodes>
            0 -1 138 -3.6871302872896194e-02</internalNodes>
          <leafValues>
            -7.4749100208282471e-01 8.4626734256744385e-02</leafValues></_>
        <_>
          <internalNodes>
            0 -1 29 5.2345348522067070e-03</internalNodes>
          <leafValues>
            -4.5987722277641296e-01 1.3524748384952545e-01</leafValues></_>
        <_>
          <internalNodes>
            0 -1 66 1.4888307778164744e-03</internalNodes>
          <leafValues>
            -1.9364926218986511e-01 3.6739599704742432e-01</leafValues></_>
        <_>
          <internalNodes>
            0 -1 91 2.0017377100884914e-03</internalNodes>
          <leafValues>
            -1.7378914356231689e-01 3.8993713259696960e-01</leafValues></_>
        <_>
          <internalNodes>
            0 -1 80 -1.2435731478035450e-02</internalNodes>
          <leafValues>
            3.7071248888969421e-01 -2.2844427824020386e-01</leafValues></_>
        <_>
          <internalNodes>
            0 -1 194 -3.0097723938524723e-03</internalNodes>
          <leafValues>
            2.9652437567710876e-01 -2.5646331906318665e-01</leafValues></_>
        <_>
          <internalNodes>
            0 -1 121 1.6816960647702217e-02</internalNodes>
          <leafValues>
            9.6622735261917114e-02 -9.3171685934066772e-01</leafValues></_>
        <_>
          <internalNodes>
            0 -1 161 -8.3171837031841278e-03</internalNodes>
          <leafValues>
            -8.4125238656997681e-01 5.2379757165908813e-02</leafValues></_>
        <_>
          <internalNodes>
            0 -1 143 3.0046042520552874e-03</internalNodes>
          <leafValues>
            6.3087098300457001e-02 -7.9760837554931641e-01</leafValues></_>
        <_>
          <internalNodes>
            0 -1 218 1.8869696650654078e-03</internalNodes>
          <leafValues>
            -2.1735958755016327e-01 3.0840665102005005e-01</leafValues></_>
        <_>
          <internalNodes>
            0 -1 199 -5.8684321120381355e-03</internalNodes>
          <leafValues>
            5.9646338224411011e-01 -1.1297404021024704e-01</leafValues></_>
        <_>
          <internalNodes>
            0 -1 160 -7.2709172964096069e-03</internalNodes>
          <leafValues>
            -7.0135951042175293e-01 9.7554795444011688e-02</leafValues></_></weakClassifiers></_>
    <!-- stage 11 -->
    <_>
      <maxWeakCount>21</maxWeakCount>
      <stageThreshold>-8.7026196718215942e-01</stageThreshold>
      <weakClassifiers>
        <_>
          <internalNodes>
            0 -1 30 -5.0262943841516972e-03</internalNodes>
          <leafValues>
            -6.9696968793869019e-01 4.1486811637878418e-01</leafValues></_>
        <_>
          <internalNodes>
            0 -1 163 -6.4236046746373177e-03</internalNodes>
          <leafValues>
            2.3862920701503754e-01 -4.7157943248748779e-01</leafValues></_>
        <_>
          <internalNodes>
            0 -1 12 -1.0635081678628922e-01</internalNodes>
          <leafValues>
            2.1973465383052826e-01 -4.0319010615348816e-01</leafValues></_>
        <_>
          <internalNodes>
            0 -1 32 -1.7429175204597414e-04</internalNodes>
          <leafValues>
            2.3534600436687469e-01 -4.0537104010581970e-01</leafValues></_>
        <_>
          <internalNodes>
            0 -1 211 -8.0222021788358688e-03</internalNodes>
          <leafValues>
            3.9384305477142334e-01 -2.2554698586463928e-01</leafValues></_>
        <_>
          <internalNodes>
            0 -1 140 -2.0665194839239120e-02</internalNodes>
          <leafValues>
            -5.8606868982315063e-01 1.2402230501174927e-01</leafValues></_>
        <_>
          <internalNodes>
            0 -1 136 4.2273588478565216e-02</internalNodes>
          <leafValues>
            7.1927785873413086e-02 -6.4434957504272461e-01</leafValues></_>
        <_>
          <internalNodes>
            0 -1 133 3.5773003473877907e-03</internalNodes>
          <leafValues>
            -4.9979454278945923e-01 1.5359595417976379e-01</leafValues></_>
        <_>
          <internalNodes>
            0 -1 7 1.0901587083935738e-02</internalNodes>
          <leafValues>
            -1.6625915467739105e-01 4.5644819736480713e-01</leafValues></_>
        <_>
          <internalNodes>
            0 -1 83 3.7277635186910629e-02</internalNodes>
          <leafValues>
            -1.7716586589813232e-01 4.8839208483695984e-01</leafValues></_>
        <_>
          <internalNodes>
            0 -1 93 3.2316474243998528e-03</internalNodes>
          <leafValues>
            -1.0918443650007248e-01 5.7524210214614868e-01</leafValues></_>
        <_>
          <internalNodes>
            0 -1 192 -7.9783275723457336e-03</internalNodes>
          <leafValues>
            -7.8650003671646118e-01 1.0652721673250198e-01</leafValues></_>
        <_>
          <internalNodes>
            0 -1 52 3.4530535340309143e-02</internalNodes>
          <leafValues>
            -1.3282941281795502e-01 6.0768365859985352e-01</leafValues></_>
        <_>
          <internalNodes>
            0 -1 62 1.6667669638991356e-02</internalNodes>
          <leafValues>
            -2.5525626540184021e-01 3.1753861904144287e-01</leafValues></_>
        <_>
          <internalNodes>
            0 -1 36 -2.9886257834732533e-03</internalNodes>
          <leafValues>
            -7.0978528261184692e-01 1.0293371975421906e-01</leafValues></_>
        <_>
          <internalNodes>
            0 -1 132 -1.5070952475070953e-02</internalNodes>
          <leafValues>
            -6.9454318284988403e-01 7.8697875142097473e-02</leafValues></_>
        <_>
          <internalNodes>
            0 -1 216 -2.4514563847333193e-03</internalNodes>
          <leafValues>
            3.5534751415252686e-01 -1.9707560539245605e-01</leafValues></_>
        <_>
          <internalNodes>
            0 -1 50 -3.1596556305885315e-02</internalNodes>
          <leafValues>
            3.6736258864402771e-01 -2.0239309966564178e-01</leafValues></_>
        <_>
          <internalNodes>
            0 -1 151 -8.0597493797540665e-03</internalNodes>
          <leafValues>
            6.0055679082870483e-01 -1.1042099446058273e-01</leafValues></_>
        <_>
          <internalNodes>
            0 -1 126 1.7118230462074280e-02</internalNodes>
          <leafValues>
            -1.6280177235603333e-01 3.6226886510848999e-01</leafValues></_>
        <_>
          <internalNodes>
            0 -1 187 -6.1358045786619186e-03</internalNodes>
          <leafValues>
            -8.3103412389755249e-01 8.6212709546089172e-02</leafValues></_></weakClassifiers></_>
    <!-- stage 12 -->
    <_>
      <maxWeakCount>24</maxWeakCount>
      <stageThreshold>-9.3460172414779663e-01</stageThreshold>
      <weakClassifiers>
        <_>
          <internalNodes>
            0 -1 17 1.6610394231975079e-03</internalNodes>
          <leafValues>
            -3.0595481395721436e-01 4.7401717305183411e-01</leafValues></_>
        <_>
          <internalNodes>
            0 -1 154 2.2208124399185181e-02</internalNodes>
          <leafValues>
            -3.7575781345367432e-01 2.5170621275901794e-01</leafValues></_>
        <_>
          <internalNodes>
            0 -1 195 -2.8735944069921970e-03</internalNodes>
          <leafValues>
            4.5191800594329834e-01 -1.9866837561130524e-01</leafValues></_>
        <_>
          <internalNodes>
            0 -1 209 2.9825200326740742e-03</internalNodes>
          <leafValues>
            -2.2692692279815674e-01 3.2252016663551331e-01</leafValues></_>
        <_>
          <internalNodes>
            0 -1 20 3.7641837261617184e-03</internalNodes>
          <leafValues>
            -2.9031342267990112e-01 2.5141212344169617e-01</leafValues></_>
        <_>
          <internalNodes>
            0 -1 169 5.7553239166736603e-03</internalNodes>
          <leafValues>
            -2.1439252793788910e-01 3.5020217299461365e-01</leafValues></_>
        <_>
          <internalNodes>
            0 -1 149 3.8868088740855455e-03</internalNodes>
          <leafValues>
            1.1010146886110306e-01 -7.2544270753860474e-01</leafValues></_>
        <_>
          <internalNodes>
            0 -1 104 -5.6152641773223877e-03</internalNodes>
          <leafValues>
            3.6342027783393860e-01 -2.1045105159282684e-01</leafValues></_>
        <_>
          <internalNodes>
            0 -1 170 -2.5423276238143444e-03</internalNodes>
          <leafValues>
            3.0125245451927185e-01 -2.2607010602951050e-01</leafValues></_>
        <_>
          <internalNodes>
            0 -1 112 -1.6918655484914780e-02</internalNodes>
          <leafValues>
            -9.2201888561248779e-01 8.1558048725128174e-02</leafValues></_>
        <_>
          <internalNodes>
            0 -1 141 3.3223271020688117e-04</internalNodes>
          <leafValues>
            -3.4540581703186035e-01 1.7416460812091827e-01</leafValues></_>
        <_>
          <internalNodes>
            0 -1 168 -1.2532670982182026e-02</internalNodes>
          <leafValues>
            -6.9527924060821533e-01 8.7542951107025146e-02</leafValues></_>
        <_>
          <internalNodes>
            0 -1 215 -3.7000901065766811e-03</internalNodes>
          <leafValues>
            3.1231260299682617e-01 -1.9432190060615540e-01</leafValues></_>
        <_>
          <internalNodes>
            0 -1 43 -3.1677968800067902e-02</internalNodes>
          <leafValues>
            5.8330249786376953e-01 -1.1212383955717087e-01</leafValues></_>
        <_>
          <internalNodes>
            0 -1 124 7.9808905720710754e-03</internalNodes>
          <leafValues>
            -2.4189421534538269e-01 3.4838578104972839e-01</leafValues></_>
        <_>
          <internalNodes>
            0 -1 156 1.0714868083596230e-02</internalNodes>
          <leafValues>
            -4.1748392581939697e-01 1.6166776418685913e-01</leafValues></_>
        <_>
          <internalNodes>
            0 -1 200 1.6489631962031126e-03</internalNodes>
          <leafValues>
            -2.1373485028743744e-01 3.2183039188385010e-01</leafValues></_>
        <_>
          <internalNodes>
            0 -1 68 -1.6946896910667419e-02</internalNodes>
          <leafValues>
            -6.3970762491226196e-01 1.0072273761034012e-01</leafValues></_>
        <_>
          <internalNodes>
            0 -1 98 -1.0007878765463829e-02</internalNodes>
          <leafValues>
            -7.7765446901321411e-01 6.8404637277126312e-02</leafValues></_>
        <_>
          <internalNodes>
            0 -1 34 7.1593420580029488e-03</internalNodes>
          <leafValues>
            5.1038324832916260e-02 -9.2728799581527710e-01</leafValues></_>
        <_>
          <internalNodes>
            0 -1 14 -4.1304961778223515e-03</internalNodes>
          <leafValues>
            4.8148751258850098e-01 -1.5319086611270905e-01</leafValues></_>
        <_>
          <internalNodes>
            0 -1 70 4.3707374483346939e-02</internalNodes>
          <leafValues>
            -9.5402665436267853e-02 6.4203310012817383e-01</leafValues></_>
        <_>
          <internalNodes>
            0 -1 81 2.1258916705846786e-02</internalNodes>
          <leafValues>
            -2.3666433990001678e-01 3.4822791814804077e-01</leafValues></_>
        <_>
          <internalNodes>
            0 -1 196 6.5715191885828972e-03</internalNodes>
          <leafValues>
            -1.0003396123647690e-01 6.0096436738967896e-01</leafValues></_></weakClassifiers></_>
    <!-- stage 13 -->
    <_>
      <maxWeakCount>21</maxWeakCount>
      <stageThreshold>-7.6792317628860474e-01</stageThreshold>
      <weakClassifiers>
        <_>
          <internalNodes>
            0 -1 22 -6.2714079394936562e-03</internalNodes>
          <leafValues>
            -2.4904213845729828e-01 4.7291094064712524e-01</leafValues></_>
        <_>
          <internalNodes>
            0 -1 150 -7.8082433901727200e-04</internalNodes>
          <leafValues>
            3.7350976467132568e-01 -2.5144061446189880e-01</leafValues></_>
        <_>
          <internalNodes>
            0 -1 106 -2.7311686426401138e-03</internalNodes>
          <leafValues>
            4.7290167212486267e-01 -1.8766464293003082e-01</leafValues></_>
        <_>
          <internalNodes>
            0 -1 13 6.7701609805226326e-03</internalNodes>
          <leafValues>
            -2.6574200391769409e-01 3.4394720196723938e-01</leafValues></_>
        <_>
          <internalNodes>
            0 -1 37 6.2121101655066013e-03</internalNodes>
          <leafValues>
            -3.2630354166030884e-01 2.8247576951980591e-01</leafValues></_>
        <_>
          <internalNodes>
            0 -1 97 -6.7053530365228653e-03</internalNodes>
          <leafValues>
            4.3576970696449280e-01 -2.2741386294364929e-01</leafValues></_>
        <_>
          <internalNodes>
            0 -1 186 -2.9773546848446131e-03</internalNodes>
          <leafValues>
            2.5842458009719849e-01 -3.8641741871833801e-01</leafValues></_>
        <_>
          <internalNodes>
            0 -1 122 1.0873882099986076e-02</internalNodes>
          <leafValues>
            8.5956789553165436e-02 -8.3170068264007568e-01</leafValues></_>
        <_>
          <internalNodes>
            0 -1 208 -6.1234617605805397e-03</internalNodes>
          <leafValues>
            5.3753441572189331e-01 -1.4031456410884857e-01</leafValues></_>
        <_>
          <internalNodes>
            0 -1 135 -1.9299145787954330e-02</internalNodes>
          <leafValues>
            -7.8748214244842529e-01 8.8696032762527466e-02</leafValues></_>
        <_>
          <internalNodes>
            0 -1 185 1.5816902741789818e-02</internalNodes>
          <leafValues>
            7.2125852108001709e-02 -7.0980525016784668e-01</leafValues></_>
        <_>
          <internalNodes>
            0 -1 110 1.4355155872181058e-03</internalNodes>
          <leafValues>
            -6.3017815351486206e-01 8.8599562644958496e-02</leafValues></_>
        <_>
          <internalNodes>
            0 -1 142 1.6883470118045807e-02</internalNodes>
          <leafValues>
            -1.2397891283035278e-01 5.3795987367630005e-01</leafValues></_>
        <_>
          <internalNodes>
            0 -1 137 -1.1382005177438259e-03</internalNodes>
          <leafValues>
            2.5717985630035400e-01 -2.9176253080368042e-01</leafValues></_>
        <_>
          <internalNodes>
            0 -1 130 1.2029858306050301e-02</internalNodes>
          <leafValues>
            9.3440607190132141e-02 -6.4563083648681641e-01</leafValues></_>
        <_>
          <internalNodes>
            0 -1 72 2.0303048193454742e-02</internalNodes>
          <leafValues>
            -1.2392073869705200e-01 5.7734650373458862e-01</leafValues></_>
        <_>
          <internalNodes>
            0 -1 8 1.2234991416335106e-02</internalNodes>
          <leafValues>
            -1.3033835589885712e-01 4.4424495100975037e-01</leafValues></_>
        <_>
          <internalNodes>
            0 -1 58 -3.1118500046432018e-03</internalNodes>
          <leafValues>
            3.2495132088661194e-01 -2.4132584035396576e-01</leafValues></_>
        <_>
          <internalNodes>
            0 -1 144 -9.4007924199104309e-03</internalNodes>
          <leafValues>
            -7.1335864067077637e-01 1.0440477728843689e-01</leafValues></_>
        <_>
          <internalNodes>
            0 -1 152 1.5279844403266907e-02</internalNodes>
          <leafValues>
            -1.8057088553905487e-01 3.6964803934097290e-01</leafValues></_>
        <_>
          <internalNodes>
            0 -1 49 2.7802895754575729e-02</internalNodes>
          <leafValues>
            8.2503557205200195e-02 -8.7987673282623291e-01</leafValues></_></weakClassifiers></_>
    <!-- stage 14 -->
    <_>
      <maxWeakCount>24</maxWeakCount>
      <stageThreshold>-8.9974421262741089e-01</stageThreshold>
      <weakClassifiers>
        <_>
          <internalNodes>
            0 -1 171 2.1134174894541502e-03</internalNodes>
          <leafValues>
            -1.8387097120285034e-01 4.8750001192092896e-01</leafValues></_>
        <_>
          <internalNodes>
            0 -1 0 1.9468059763312340e-02</internalNodes>
          <leafValues>
            -1.6541580855846405e-01 4.7075799107551575e-01</leafValues></_>
        <_>
          <internalNodes>
            0 -1 188 4.0042540058493614e-03</internalNodes>
          <leafValues>
            -3.2217431068420410e-01 2.4043408036231995e-01</leafValues></_>
        <_>
          <internalNodes>
            0 -1 88 -9.6355397254228592e-03</internalNodes>
          <leafValues>
            1.8486541509628296e-01 -3.7135097384452820e-01</leafValues></_>
        <_>
          <internalNodes>
            0 -1 183 8.8256197050213814e-03</internalNodes>
          <leafValues>
            -1.5598078072071075e-01 5.0219213962554932e-01</leafValues></_>
        <_>
          <internalNodes>
            0 -1 198 -4.2235013097524643e-03</internalNodes>
          <leafValues>
            4.0712162852287292e-01 -2.1459662914276123e-01</leafValues></_>
        <_>
          <internalNodes>
            0 -1 56 2.2195294150151312e-04</internalNodes>
          <leafValues>
            -4.8875176906585693e-01 1.6943721473217010e-01</leafValues></_>
        <_>
          <internalNodes>
            0 -1 103 -2.3530907928943634e-03</internalNodes>
          <leafValues>
            2.7888977527618408e-01 -2.6130095124244690e-01</leafValues></_>
        <_>
          <internalNodes>
            0 -1 123 -5.9237722307443619e-03</internalNodes>
          <leafValues>
            -3.9541459083557129e-01 1.6741812229156494e-01</leafValues></_>
        <_>
          <internalNodes>
            0 -1 70 3.2750211656093597e-02</internalNodes>
          <leafValues>
            -1.6989931464195251e-01 4.4826930761337280e-01</leafValues></_>
        <_>
          <internalNodes>
            0 -1 78 8.5502760484814644e-03</internalNodes>
          <leafValues>
            -2.3163458704948425e-01 3.3609178662300110e-01</leafValues></_>
        <_>
          <internalNodes>
            0 -1 220 -1.5039262361824512e-03</internalNodes>
          <leafValues>
            2.8068596124649048e-01 -2.4869111180305481e-01</leafValues></_>
        <_>
          <internalNodes>
            0 -1 118 -2.4871945381164551e-02</internalNodes>
          <leafValues>
            -7.2564488649368286e-01 8.6407735943794250e-02</leafValues></_>
        <_>
          <internalNodes>
            0 -1 100 -8.2428976893424988e-03</internalNodes>
          <leafValues>
            4.3854159116744995e-01 -1.4551360905170441e-01</leafValues></_>
        <_>
          <internalNodes>
            0 -1 80 -1.5955697745084763e-02</internalNodes>
          <leafValues>
            3.5531485080718994e-01 -1.8440891802310944e-01</leafValues></_>
        <_>
          <internalNodes>
            0 -1 61 1.2933259829878807e-02</internalNodes>
          <leafValues>
            -2.1179477870464325e-01 4.6193245053291321e-01</leafValues></_>
        <_>
          <internalNodes>
            0 -1 173 -1.1054194532334805e-02</internalNodes>
          <leafValues>
            -7.5440657138824463e-01 1.1416190117597580e-01</leafValues></_>
        <_>
          <internalNodes>
            0 -1 92 -1.3449471443891525e-03</internalNodes>
          <leafValues>
            2.1050284802913666e-01 -2.9411962628364563e-01</leafValues></_>
        <_>
          <internalNodes>
            0 -1 176 -9.7599683795124292e-04</internalNodes>
          <leafValues>
            3.0986440181732178e-01 -1.9333323836326599e-01</leafValues></_>
        <_>
          <internalNodes>
            0 -1 213 9.8665840923786163e-03</internalNodes>
          <leafValues>
            -1.3538624346256256e-01 4.6286308765411377e-01</leafValues></_>
        <_>
          <internalNodes>
            0 -1 139 -3.1066127121448517e-02</internalNodes>
          <leafValues>
            -7.0842230319976807e-01 9.1274395585060120e-02</leafValues></_>
        <_>
          <internalNodes>
            0 -1 127 2.7877574786543846e-02</internalNodes>
          <leafValues>
            5.9025563299655914e-02 -8.2964390516281128e-01</leafValues></_>
        <_>
          <internalNodes>
            0 -1 182 -1.4540258795022964e-02</internalNodes>
          <leafValues>
            -8.0064940452575684e-01 6.1274971812963486e-02</leafValues></_>
        <_>
          <internalNodes>
            0 -1 27 -6.8382792174816132e-02</internalNodes>
          <leafValues>
            -5.4486429691314697e-01 9.8432734608650208e-02</leafValues></_></weakClassifiers></_></stages>
  <features>
    <_>
      <rects>
        <_>
          0 5 2 12 -1.</_>
        <_>
          1 5 1 12 2.</_></rects>
      <tilted>0</tilted></_>
    <_>
      <rects>
        <_>
          0 10 2 8 -1.</_>
        <_>
          1 10 1 8 2.</_></rects>
      <tilted>0</tilted></_>
    <_>
      <rects>
        <_>
          0 10 7 3 -1.</_>
        <_>
          0 11 7 1 3.</_></rects>
      <tilted>0</tilted></_>
    <_>
      <rects>
        <_>
          0 11 2 4 -1.</_>
        <_>
          1 11 1 4 2.</_></rects>
      <tilted>0</tilted></_>
    <_>
      <rects>
        <_>
          0 11 3 5 -1.</_>
        <_>
          1 11 1 5 3.</_></rects>
      <tilted>0</tilted></_>
    <_>
      <rects>
        <_>
          0 12 2 2 -1.</_>
        <_>
          1 12 1 2 2.</_></rects>
      <tilted>0</tilted></_>
    <_>
      <rects>
        <_>
          0 12 3 2 -1.</_>
        <_>
          1 12 1 2 3.</_></rects>
      <tilted>0</tilted></_>
    <_>
      <rects>
        <_>
          0 12 2 3 -1.</_>
        <_>
          1 12 1 3 2.</_></rects>
      <tilted>0</tilted></_>
    <_>
      <rects>
        <_>
          0 13 3 5 -1.</_>
        <_>
          1 13 1 5 3.</_></rects>
      <tilted>0</tilted></_>
    <_>
      <rects>
        <_>
          0 13 6 3 -1.</_>
        <_>
          2 13 2 3 3.</_></rects>
      <tilted>0</tilted></_>
    <_>
      <rects>
        <_>
          0 13 8 2 -1.</_>
        <_>
          0 13 4 1 2.</_>
        <_>
          4 14 4 1 2.</_></rects>
      <tilted>0</tilted></_>
    <_>
      <rects>
        <_>
          0 14 12 5 -1.</_>
        <_>
          4 14 4 5 3.</_></rects>
      <tilted>0</tilted></_>
    <_>
      <rects>
        <_>
          1 4 18 14 -1.</_>
        <_>
          1 4 9 7 2.</_>
        <_>
          10 11 9 7 2.</_></rects>
      <tilted>0</tilted></_>
    <_>
      <rects>
        <_>
          1 9 3 2 -1.</_>
        <_>
          2 9 1 2 3.</_></rects>
      <tilted>0</tilted></_>
    <_>
      <rects>
        <_>
          1 9 2 3 -1.</_>
        <_>
          2 9 1 3 2.</_></rects>
      <tilted>0</tilted></_>
    <_>
      <rects>
        <_>
          1 9 3 3 -1.</_>
        <_>
          2 9 1 3 3.</_></rects>
      <tilted>0</tilted></_>
    <_>
      <rects>
        <_>
          1 9 6 3 -1.</_>
        <_>
          4 9 3 3 2.</_></rects>
      <tilted>0</tilted></_>
    <_>
      <rects>
        <_>
          1 9 12 2 -1.</_>
        <_>
          5 9 4 2 3.</_></rects>
      <tilted>0</tilted></_>
    <_>
      <rects>
        <_>
          1 10 1 2 -1.</_>
        <_>
          1 11 1 1 2.</_></rects>
      <tilted>0</tilted></_>
    <_>
      <rects>
        <_>
          1 10 3 1 -1.</_>
        <_>
          2 10 1 1 3.</_></rects>
      <tilted>0</tilted></_>
    <_>
      <rects>
        <_>
          1 10 3 2 -1.</_>
        <_>
          2 10 1 2 3.</_></rects>
      <tilted>0</tilted></_>
    <_>
      <rects>
        <_>
          1 11 2 2 -1.</_>
        <_>
          1 12 2 1 2.</_></rects>
      <tilted>0</tilted></_>
    <_>
      <rects>
        <_>
          1 11 4 4 -1.</_>
        <_>
          3 11 2 4 2.</_></rects>
      <tilted>0</tilted></_>
    <_>
      <rects>
        <_>
          1 11 12 1 -1.</_>
        <_>
          5 11 4 1 3.</_></rects>
      <tilted>0</tilted></_>
    <_>
      <rects>
        <_>
          1 11 8 8 -1.</_>
        <_>
          1 11 4 4 2.</_>
        <_>
          5 15 4 4 2.</_></rects>
      <tilted>0</tilted></_>
    <_>
      <rects>
        <_>
          1 13 12 6 -1.</_>
        <_>
          5 13 4 6 3.</_></rects>
      <tilted>0</tilted></_>
    <_>
      <rects>
        <_>
          2 2 18 14 -1.</_>
        <_>
          2 2 9 7 2.</_>
        <_>
          11 9 9 7 2.</_></rects>
      <tilted>0</tilted></_>
    <_>
      <rects>
        <_>
          2 3 18 7 -1.</_>
        <_>
          11 3 9 7 2.</_></rects>
      <tilted>0</tilted></_>
    <_>
      <rects>
        <_>
          2 5 6 10 -1.</_>
        <_>
          2 10 6 5 2.</_></rects>
      <tilted>0</tilted></_>
    <_>
      <rects>
        <_>
          2 7 10 2 -1.</_>
        <_>
          7 7 5 2 2.</_></rects>
      <tilted>0</tilted></_>
    <_>
      <rects>
        <_>
          2 9 2 3 -1.</_>
        <_>
          2 10 2 1 3.</_></rects>
      <tilted>0</tilted></_>
    <_>
      <rects>
        <_>
          2 9 6 10 -1.</_>
        <_>
          2 14 6 5 2.</_></rects>
      <tilted>0</tilted></_>
    <_>
      <rects>
        <_>
          2 10 3 1 -1.</_>
        <_>
          3 10 1 1 3.</_></rects>
      <tilted>0</tilted></_>
    <_>
      <rects>
        <_>
          2 10 1 3 -1.</_>
        <_>
          2 11 1 1 3.</_></rects>
      <tilted>0</tilted></_>
    <_>
      <rects>
        <_>
          2 10 4 1 -1.</_>
        <_>
          4 10 2 1 2.</_></rects>
      <tilted>0</tilted></_>
    <_>
      <rects>
        <_>
          2 10 6 1 -1.</_>
        <_>
          5 10 3 1 2.</_></rects>
      <tilted>0</tilted></_>
    <_>
      <rects>
        <_>
          2 11 1 3 -1.</_>
        <_>
          2 12 1 1 3.</_></rects>
      <tilted>0</tilted></_>
    <_>
      <rects>
        <_>
          2 11 2 6 -1.</_>
        <_>
          2 13 2 2 3.</_></rects>
      <tilted>0</tilted></_>
    <_>
      <rects>
        <_>
          2 11 6 8 -1.</_>
        <_>
          2 11 3 4 2.</_>
        <_>
          5 15 3 4 2.</_></rects>
      <tilted>0</tilted></_>
    <_>
      <rects>
        <_>
          2 12 2 3 -1.</_>
        <_>
          3 12 1 3 2.</_></rects>
      <tilted>0</tilted></_>
    <_>
      <rects>
        <_>
          2 12 2 3 -1.</_>
        <_>
          2 13 2 1 3.</_></rects>
      <tilted>0</tilted></_>
    <_>
      <rects>
        <_>
          2 12 4 6 -1.</_>
        <_>
          2 12 2 3 2.</_>
        <_>
          4 15 2 3 2.</_></rects>
      <tilted>0</tilted></_>
    <_>
      <rects>
        <_>
          2 13 8 2 -1.</_>
        <_>
          2 14 8 1 2.</_></rects>
      <tilted>0</tilted></_>
    <_>
      <rects>
        <_>
          2 15 6 2 -1.</_>
        <_>
          5 15 3 2 2.</_></rects>
      <tilted>0</tilted></_>
    <_>
      <rects>
        <_>
          2 18 8 2 -1.</_>
        <_>
          2 19 8 1 2.</_></rects>
      <tilted>0</tilted></_>
    <_>
      <rects>
        <_>
          3 5 10 10 -1.</_>
        <_>
          3 5 5 5 2.</_>
        <_>
          8 10 5 5 2.</_></rects>
      <tilted>0</tilted></_>
    <_>
      <rects>
        <_>
          3 7 8 8 -1.</_>
        <_>
          3 7 4 4 2.</_>
        <_>
          7 11 4 4 2.</_></rects>
      <tilted>0</tilted></_>
    <_>
      <rects>
        <_>
          3 7 15 2 -1.</_>
        <_>
          8 7 5 2 3.</_></rects>
      <tilted>0</tilted></_>
    <_>
      <rects>
        <_>
          3 8 1 6 -1.</_>
        <_>
          3 11 1 3 2.</_></rects>
      <tilted>0</tilted></_>
    <_>
      <rects>
        <_>
          3 8 6 4 -1.</_>
        <_>
          5 8 2 4 3.</_></rects>
      <tilted>0</tilted></_>
    <_>
      <rects>
        <_>
          3 8 9 10 -1.</_>
        <_>
          6 8 3 10 3.</_></rects>
      <tilted>0</tilted></_>
    <_>
      <rects>
        <_>
          3 8 7 8 -1.</_>
        <_>
          3 12 7 4 2.</_></rects>
      <tilted>0</tilted></_>
    <_>
      <rects>
        <_>
          3 9 6 6 -1.</_>
        <_>
          3 11 6 2 3.</_></rects>
      <tilted>0</tilted></_>
    <_>
      <rects>
        <_>
          3 10 2 9 -1.</_>
        <_>
          3 13 2 3 3.</_></rects>
      <tilted>0</tilted></_>
    <_>
      <rects>
        <_>
          3 10 6 8 -1.</_>
        <_>
          6 10 3 8 2.</_></rects>
      <tilted>0</tilted></_>
    <_>
      <rects>
        <_>
          3 10 8 7 -1.</_>
        <_>
          7 10 4 7 2.</_></rects>
      <tilted>0</tilted></_>
    <_>
      <rects>
        <_>
          3 11 1 2 -1.</_>
        <_>
          3 12 1 1 2.</_></rects>
      <tilted>0</tilted></_>
    <_>
      <rects>
        <_>
          3 11 1 6 -1.</_>
        <_>
          3 13 1 2 3.</_></rects>
      <tilted>0</tilted></_>
    <_>
      <rects>
        <_>
          3 11 3 3 -1.</_>
        <_>
          4 11 1 3 3.</_></rects>
      <tilted>0</tilted></_>
    <_>
      <rects>
        <_>
          3 11 1 9 -1.</_>
        <_>
          3 14 1 3 3.</_></rects>
      <tilted>0</tilted></_>
    <_>
      <rects>
        <_>
          3 11 4 5 -1.</_>
        <_>
          5 11 2 5 2.</_></rects>
      <tilted>0</tilted></_>
    <_>
      <rects>
        <_>
          3 11 4 6 -1.</_>
        <_>
          5 11 2 6 2.</_></rects>
      <tilted>0</tilted></_>
    <_>
      <rects>
        <_>
          3 11 7 4 -1.</_>
        <_>
          3 13 7 2 2.</_></rects>
      <tilted>0</tilted></_>
    <_>
      <rects>
        <_>
          3 13 9 5 -1.</_>
        <_>
          6 13 3 5 3.</_></rects>
      <tilted>0</tilted></_>
    <_>
      <rects>
        <_>
          3 14 10 2 -1.</_>
        <_>
          8 14 5 2 2.</_></rects>
      <tilted>0</tilted></_>
    <_>
      <rects>
        <_>
          3 15 8 1 -1.</_>
        <_>
          7 15 4 1 2.</_></rects>
      <tilted>0</tilted></_>
    <_>
      <rects>
        <_>
          4 3 2 2 -1.</_>
        <_>
          4 4 2 1 2.</_></rects>
      <tilted>0</tilted></_>
    <_>
      <rects>
        <_>
          4 5 2 4 -1.</_>
        <_>
          4 5 1 2 2.</_>
        <_>
          5 7 1 2 2.</_></rects>
      <tilted>0</tilted></_>
    <_>
      <rects>
        <_>
          4 6 6 3 -1.</_>
        <_>
          6 6 2 3 3.</_></rects>
      <tilted>0</tilted></_>
    <_>
      <rects>
        <_>
          4 7 1 8 -1.</_>
        <_>
          4 11 1 4 2.</_></rects>
      <tilted>0</tilted></_>
    <_>
      <rects>
        <_>
          4 7 2 9 -1.</_>
        <_>
          4 10 2 3 3.</_></rects>
      <tilted>0</tilted></_>
    <_>
      <rects>
        <_>
          4 7 6 2 -1.</_>
        <_>
          7 7 3 2 2.</_></rects>
      <tilted>0</tilted></_>
    <_>
      <rects>
        <_>
          4 8 2 6 -1.</_>
        <_>
          4 10 2 2 3.</_></rects>
      <tilted>0</tilted></_>
    <_>
      <rects>
        <_>
          4 8 6 1 -1.</_>
        <_>
          7 8 3 1 2.</_></rects>
      <tilted>0</tilted></_>
    <_>
      <rects>
        <_>
          4 8 9 1 -1.</_>
        <_>
          7 8 3 1 3.</_></rects>
      <tilted>0</tilted></_>
    <_>
      <rects>
        <_>
          4 9 2 2 -1.</_>
        <_>
          5 9 1 2 2.</_></rects>
      <tilted>0</tilted></_>
    <_>
      <rects>
        <_>
          4 9 3 3 -1.</_>
        <_>
          5 9 1 3 3.</_></rects>
      <tilted>0</tilted></_>
    <_>
      <rects>
        <_>
          4 10 3 1 -1.</_>
        <_>
          5 10 1 1 3.</_></rects>
      <tilted>0</tilted></_>
    <_>
      <rects>
        <_>
          4 10 1 6 -1.</_>
        <_>
          4 13 1 3 2.</_></rects>
      <tilted>0</tilted></_>
    <_>
      <rects>
        <_>
          4 10 4 3 -1.</_>
        <_>
          6 10 2 3 2.</_></rects>
      <tilted>0</tilted></_>
    <_>
      <rects>
        <_>
          4 10 4 4 -1.</_>
        <_>
          6 10 2 4 2.</_></rects>
      <tilted>0</tilted></_>
    <_>
      <rects>
        <_>
          4 11 2 9 -1.</_>
        <_>
          4 14 2 3 3.</_></rects>
      <tilted>0</tilted></_>
    <_>
      <rects>
        <_>
          4 11 4 4 -1.</_>
        <_>
          6 11 2 4 2.</_></rects>
      <tilted>0</tilted></_>
    <_>
      <rects>
        <_>
          4 11 6 6 -1.</_>
        <_>
          6 11 2 6 3.</_></rects>
      <tilted>0</tilted></_>
    <_>
      <rects>
        <_>
          4 11 6 8 -1.</_>
        <_>
          6 11 2 8 3.</_></rects>
      <tilted>0</tilted></_>
    <_>
      <rects>
        <_>
          4 11 3 3 -1.</_>
        <_>
          4 12 3 1 3.</_></rects>
      <tilted>0</tilted></_>
    <_>
      <rects>
        <_>
          4 11 4 4 -1.</_>
        <_>
          4 13 4 2 2.</_></rects>
      <tilted>0</tilted></_>
    <_>
      <rects>
        <_>
          4 11 5 4 -1.</_>
        <_>
          4 13 5 2 2.</_></rects>
      <tilted>0</tilted></_>
    <_>
      <rects>
        <_>
          4 11 14 2 -1.</_>
        <_>
          11 11 7 2 2.</_></rects>
      <tilted>0</tilted></_>
    <_>
      <rects>
        <_>
          4 12 9 1 -1.</_>
        <_>
          7 12 3 1 3.</_></rects>
      <tilted>0</tilted></_>
    <_>
      <rects>
        <_>
          4 12 4 4 -1.</_>
        <_>
          4 14 4 2 2.</_></rects>
      <tilted>0</tilted></_>
    <_>
      <rects>
        <_>
          4 13 1 2 -1.</_>
        <_>
          4 14 1 1 2.</_></rects>
      <tilted>0</tilted></_>
    <_>
      <rects>
        <_>
          4 13 2 2 -1.</_>
        <_>
          5 13 1 2 2.</_></rects>
      <tilted>0</tilted></_>
    <_>
      <rects>
        <_>
          5 3 1 3 -1.</_>
        <_>
          5 4 1 1 3.</_></rects>
      <tilted>0</tilted></_>
    <_>
      <rects>
        <_>
          5 6 4 8 -1.</_>
        <_>
          5 6 2 4 2.</_>
        <_>
          7 10 2 4 2.</_></rects>
      <tilted>0</tilted></_>
    <_>
      <rects>
        <_>
          5 6 6 7 -1.</_>
        <_>
          8 6 3 7 2.</_></rects>
      <tilted>0</tilted></_>
    <_>
      <rects>
        <_>
          5 7 12 3 -1.</_>
        <_>
          11 7 6 3 2.</_></rects>
      <tilted>0</tilted></_>
    <_>
      <rects>
        <_>
          5 10 1 6 -1.</_>
        <_>
          5 12 1 2 3.</_></rects>
      <tilted>0</tilted></_>
    <_>
      <rects>
        <_>
          5 10 2 6 -1.</_>
        <_>
          5 10 1 3 2.</_>
        <_>
          6 13 1 3 2.</_></rects>
      <tilted>0</tilted></_>
    <_>
      <rects>
        <_>
          5 10 2 4 -1.</_>
        <_>
          6 10 1 4 2.</_></rects>
      <tilted>0</tilted></_>
    <_>
      <rects>
        <_>
          5 11 4 3 -1.</_>
        <_>
          5 12 4 1 3.</_></rects>
      <tilted>0</tilted></_>
    <_>
      <rects>
        <_>
          5 12 2 7 -1.</_>
        <_>
          6 12 1 7 2.</_></rects>
      <tilted>0</tilted></_>
    <_>
      <rects>
        <_>
          5 12 3 2 -1.</_>
        <_>
          5 13 3 1 2.</_></rects>
      <tilted>0</tilted></_>
    <_>
      <rects>
        <_>
          5 12 3 3 -1.</_>
        <_>
          5 13 3 1 3.</_></rects>
      <tilted>0</tilted></_>
    <_>
      <rects>
        <_>
          5 12 4 3 -1.</_>
        <_>
          5 13 4 1 3.</_></rects>
      <tilted>0</tilted></_>
    <_>
      <rects>
        <_>
          5 12 5 3 -1.</_>
        <_>
          5 13 5 1 3.</_></rects>
      <tilted>0</tilted></_>
    <_>
      <rects>
        <_>
          5 13 2 2 -1.</_>
        <_>
          5 14 2 1 2.</_></rects>
      <tilted>0</tilted></_>
    <_>
      <rects>
        <_>
          5 13 3 2 -1.</_>
        <_>
          5 14 3 1 2.</_></rects>
      <tilted>0</tilted></_>
    <_>
      <rects>
        <_>
          6 6 6 6 -1.</_>
        <_>
          8 6 2 6 3.</_></rects>
      <tilted>0</tilted></_>
    <_>
      <rects>
        <_>
          6 6 3 6 -1.</_>
        <_>
          6 8 3 2 3.</_></rects>
      <tilted>0</tilted></_>
    <_>
      <rects>
        <_>
          6 6 4 6 -1.</_>
        <_>
          6 8 4 2 3.</_></rects>
      <tilted>0</tilted></_>
    <_>
      <rects>
        <_>
          6 7 2 4 -1.</_>
        <_>
          6 9 2 2 2.</_></rects>
      <tilted>0</tilted></_>
    <_>
      <rects>
        <_>
          6 7 4 4 -1.</_>
        <_>
          6 7 2 2 2.</_>
        <_>
          8 9 2 2 2.</_></rects>
      <tilted>0</tilted></_>
    <_>
      <rects>
        <_>
          6 7 3 12 -1.</_>
        <_>
          6 13 3 6 2.</_></rects>
      <tilted>0</tilted></_>
    <_>
      <rects>
        <_>
          6 7 5 6 -1.</_>
        <_>
          6 10 5 3 2.</_></rects>
      <tilted>0</tilted></_>
    <_>
      <rects>
        <_>
          6 8 6 1 -1.</_>
        <_>
          8 8 2 1 3.</_></rects>
      <tilted>0</tilted></_>
    <_>
      <rects>
        <_>
          6 8 6 5 -1.</_>
        <_>
          9 8 3 5 2.</_></rects>
      <tilted>0</tilted></_>
    <_>
      <rects>
        <_>
          6 8 5 6 -1.</_>
        <_>
          6 11 5 3 2.</_></rects>
      <tilted>0</tilted></_>
    <_>
      <rects>
        <_>
          6 8 6 6 -1.</_>
        <_>
          6 10 6 2 3.</_></rects>
      <tilted>0</tilted></_>
    <_>
      <rects>
        <_>
          6 9 6 2 -1.</_>
        <_>
          9 9 3 2 2.</_></rects>
      <tilted>0</tilted></_>
    <_>
      <rects>
        <_>
          6 9 6 3 -1.</_>
        <_>
          9 9 3 3 2.</_></rects>
      <tilted>0</tilted></_>
    <_>
      <rects>
        <_>
          6 9 6 5 -1.</_>
        <_>
          9 9 3 5 2.</_></rects>
      <tilted>0</tilted></_>
    <_>
      <rects>
        <_>
          6 10 4 4 -1.</_>
        <_>
          8 10 2 4 2.</_></rects>
      <tilted>0</tilted></_>
    <_>
      <rects>
        <_>
          6 10 4 4 -1.</_>
        <_>
          6 12 4 2 2.</_></rects>
      <tilted>0</tilted></_>
    <_>
      <rects>
        <_>
          6 11 2 8 -1.</_>
        <_>
          6 15 2 4 2.</_></rects>
      <tilted>0</tilted></_>
    <_>
      <rects>
        <_>
          6 14 4 3 -1.</_>
        <_>
          6 15 4 1 3.</_></rects>
      <tilted>0</tilted></_>
    <_>
      <rects>
        <_>
          7 0 12 4 -1.</_>
        <_>
          7 0 6 2 2.</_>
        <_>
          13 2 6 2 2.</_></rects>
      <tilted>0</tilted></_>
    <_>
      <rects>
        <_>
          7 4 6 8 -1.</_>
        <_>
          10 4 3 8 2.</_></rects>
      <tilted>0</tilted></_>
    <_>
      <rects>
        <_>
          7 4 4 9 -1.</_>
        <_>
          7 7 4 3 3.</_></rects>
      <tilted>0</tilted></_>
    <_>
      <rects>
        <_>
          7 5 2 2 -1.</_>
        <_>
          7 6 2 1 2.</_></rects>
      <tilted>0</tilted></_>
    <_>
      <rects>
        <_>
          7 5 6 2 -1.</_>
        <_>
          9 5 2 2 3.</_></rects>
      <tilted>0</tilted></_>
    <_>
      <rects>
        <_>
          7 5 4 4 -1.</_>
        <_>
          7 7 4 2 2.</_></rects>
      <tilted>0</tilted></_>
    <_>
      <rects>
        <_>
          7 6 3 11 -1.</_>
        <_>
          8 6 1 11 3.</_></rects>
      <tilted>0</tilted></_>
    <_>
      <rects>
        <_>
          7 6 2 6 -1.</_>
        <_>
          7 8 2 2 3.</_></rects>
      <tilted>0</tilted></_>
    <_>
      <rects>
        <_>
          7 6 6 6 -1.</_>
        <_>
          9 6 2 6 3.</_></rects>
      <tilted>0</tilted></_>
    <_>
      <rects>
        <_>
          7 6 5 9 -1.</_>
        <_>
          7 9 5 3 3.</_></rects>
      <tilted>0</tilted></_>
    <_>
      <rects>
        <_>
          7 6 6 9 -1.</_>
        <_>
          7 9 6 3 3.</_></rects>
      <tilted>0</tilted></_>
    <_>
      <rects>
        <_>
          7 7 2 4 -1.</_>
        <_>
          7 7 1 2 2.</_>
        <_>
          8 9 1 2 2.</_></rects>
      <tilted>0</tilted></_>
    <_>
      <rects>
        <_>
          7 7 2 12 -1.</_>
        <_>
          7 11 2 4 3.</_></rects>
      <tilted>0</tilted></_>
    <_>
      <rects>
        <_>
          7 7 4 9 -1.</_>
        <_>
          7 10 4 3 3.</_></rects>
      <tilted>0</tilted></_>
    <_>
      <rects>
        <_>
          7 7 5 9 -1.</_>
        <_>
          7 10 5 3 3.</_></rects>
      <tilted>0</tilted></_>
    <_>
      <rects>
        <_>
          7 8 2 1 -1.</_>
        <_>
          8 8 1 1 2.</_></rects>
      <tilted>0</tilted></_>
    <_>
      <rects>
        <_>
          7 8 1 10 -1.</_>
        <_>
          7 13 1 5 2.</_></rects>
      <tilted>0</tilted></_>
    <_>
      <rects>
        <_>
          7 9 2 4 -1.</_>
        <_>
          7 11 2 2 2.</_></rects>
      <tilted>0</tilted></_>
    <_>
      <rects>
        <_>
          7 9 4 3 -1.</_>
        <_>
          9 9 2 3 2.</_></rects>
      <tilted>0</tilted></_>
    <_>
      <rects>
        <_>
          7 9 4 4 -1.</_>
        <_>
          9 9 2 4 2.</_></rects>
      <tilted>0</tilted></_>
    <_>
      <rects>
        <_>
          7 9 6 4 -1.</_>
        <_>
          9 9 2 4 3.</_></rects>
      <tilted>0</tilted></_>
    <_>
      <rects>
        <_>
          7 9 5 4 -1.</_>
        <_>
          7 11 5 2 2.</_></rects>
      <tilted>0</tilted></_>
    <_>
      <rects>
        <_>
          7 10 4 3 -1.</_>
        <_>
          9 10 2 3 2.</_></rects>
      <tilted>0</tilted></_>
    <_>
      <rects>
        <_>
          7 11 2 3 -1.</_>
        <_>
          8 11 1 3 2.</_></rects>
      <tilted>0</tilted></_>
    <_>
      <rects>
        <_>
          7 14 1 2 -1.</_>
        <_>
          7 15 1 1 2.</_></rects>
      <tilted>0</tilted></_>
    <_>
      <rects>
        <_>
          7 18 3 2 -1.</_>
        <_>
          7 19 3 1 2.</_></rects>
      <tilted>0</tilted></_>
    <_>
      <rects>
        <_>
          8 0 8 4 -1.</_>
        <_>
          8 0 4 2 2.</_>
        <_>
          12 2 4 2 2.</_></rects>
      <tilted>0</tilted></_>
    <_>
      <rects>
        <_>
          8 1 8 2 -1.</_>
        <_>
          8 1 4 1 2.</_>
        <_>
          12 2 4 1 2.</_></rects>
      <tilted>0</tilted></_>
    <_>
      <rects>
        <_>
          8 2 2 12 -1.</_>
        <_>
          8 6 2 4 3.</_></rects>
      <tilted>0</tilted></_>
    <_>
      <rects>
        <_>
          8 4 2 9 -1.</_>
        <_>
          8 7 2 3 3.</_></rects>
      <tilted>0</tilted></_>
    <_>
      <rects>
        <_>
          8 4 2 12 -1.</_>
        <_>
          8 8 2 4 3.</_></rects>
      <tilted>0</tilted></_>
    <_>
      <rects>
        <_>
          8 4 3 12 -1.</_>
        <_>
          8 8 3 4 3.</_></rects>
      <tilted>0</tilted></_>
    <_>
      <rects>
        <_>
          8 5 2 4 -1.</_>
        <_>
          8 7 2 2 2.</_></rects>
      <tilted>0</tilted></_>
    <_>
      <rects>
        <_>
          8 5 2 6 -1.</_>
        <_>
          8 7 2 2 3.</_></rects>
      <tilted>0</tilted></_>
    <_>
      <rects>
        <_>
          8 5 3 3 -1.</_>
        <_>
          8 6 3 1 3.</_></rects>
      <tilted>0</tilted></_>
    <_>
      <rects>
        <_>
          8 6 2 7 -1.</_>
        <_>
          9 6 1 7 2.</_></rects>
      <tilted>0</tilted></_>
    <_>
      <rects>
        <_>
          8 6 8 2 -1.</_>
        <_>
          12 6 4 2 2.</_></rects>
      <tilted>0</tilted></_>
    <_>
      <rects>
        <_>
          8 7 9 3 -1.</_>
        <_>
          11 7 3 3 3.</_></rects>
      <tilted>0</tilted></_>
    <_>
      <rects>
        <_>
          8 7 12 2 -1.</_>
        <_>
          14 7 6 2 2.</_></rects>
      <tilted>0</tilted></_>
    <_>
      <rects>
        <_>
          8 8 1 6 -1.</_>
        <_>
          8 11 1 3 2.</_></rects>
      <tilted>0</tilted></_>
    <_>
      <rects>
        <_>
          8 8 4 4 -1.</_>
        <_>
          8 8 2 2 2.</_>
        <_>
          10 10 2 2 2.</_></rects>
      <tilted>0</tilted></_>
    <_>
      <rects>
        <_>
          8 9 4 2 -1.</_>
        <_>
          8 9 2 1 2.</_>
        <_>
          10 10 2 1 2.</_></rects>
      <tilted>0</tilted></_>
    <_>
      <rects>
        <_>
          8 9 4 4 -1.</_>
        <_>
          8 11 4 2 2.</_></rects>
      <tilted>0</tilted></_>
    <_>
      <rects>
        <_>
          8 10 2 6 -1.</_>
        <_>
          8 12 2 2 3.</_></rects>
      <tilted>0</tilted></_>
    <_>
      <rects>
        <_>
          8 10 4 4 -1.</_>
        <_>
          8 10 2 2 2.</_>
        <_>
          10 12 2 2 2.</_></rects>
      <tilted>0</tilted></_>
    <_>
      <rects>
        <_>
          9 4 1 4 -1.</_>
        <_>
          9 6 1 2 2.</_></rects>
      <tilted>0</tilted></_>
    <_>
      <rects>
        <_>
          9 4 5 2 -1.</_>
        <_>
          9 5 5 1 2.</_></rects>
      <tilted>0</tilted></_>
    <_>
      <rects>
        <_>
          9 5 3 6 -1.</_>
        <_>
          10 5 1 6 3.</_></rects>
      <tilted>0</tilted></_>
    <_>
      <rects>
        <_>
          9 6 2 8 -1.</_>
        <_>
          9 10 2 4 2.</_></rects>
      <tilted>0</tilted></_>
    <_>
      <rects>
        <_>
          9 7 4 6 -1.</_>
        <_>
          11 7 2 6 2.</_></rects>
      <tilted>0</tilted></_>
    <_>
      <rects>
        <_>
          9 10 1 3 -1.</_>
        <_>
          9 11 1 1 3.</_></rects>
      <tilted>0</tilted></_>
    <_>
      <rects>
        <_>
          9 10 1 6 -1.</_>
        <_>
          9 12 1 2 3.</_></rects>
      <tilted>0</tilted></_>
    <_>
      <rects>
        <_>
          9 12 2 4 -1.</_>
        <_>
          9 14 2 2 2.</_></rects>
      <tilted>0</tilted></_>
    <_>
      <rects>
        <_>
          10 2 4 10 -1.</_>
        <_>
          10 2 2 5 2.</_>
        <_>
          12 7 2 5 2.</_></rects>
      <tilted>0</tilted></_>
    <_>
      <rects>
        <_>
          10 3 1 4 -1.</_>
        <_>
          10 5 1 2 2.</_></rects>
      <tilted>0</tilted></_>
    <_>
      <rects>
        <_>
          10 4 1 8 -1.</_>
        <_>
          10 8 1 4 2.</_></rects>
      <tilted>0</tilted></_>
    <_>
      <rects>
        <_>
          10 4 3 6 -1.</_>
        <_>
          11 4 1 6 3.</_></rects>
      <tilted>0</tilted></_>
    <_>
      <rects>
        <_>
          10 4 4 3 -1.</_>
        <_>
          10 5 4 1 3.</_></rects>
      <tilted>0</tilted></_>
    <_>
      <rects>
        <_>
          10 5 1 6 -1.</_>
        <_>
          10 8 1 3 2.</_></rects>
      <tilted>0</tilted></_>
    <_>
      <rects>
        <_>
          10 5 2 8 -1.</_>
        <_>
          10 9 2 4 2.</_></rects>
      <tilted>0</tilted></_>
    <_>
      <rects>
        <_>
          10 7 2 7 -1.</_>
        <_>
          11 7 1 7 2.</_></rects>
      <tilted>0</tilted></_>
    <_>
      <rects>
        <_>
          10 9 2 2 -1.</_>
        <_>
          11 9 1 2 2.</_></rects>
      <tilted>0</tilted></_>
    <_>
      <rects>
        <_>
          10 9 2 6 -1.</_>
        <_>
          10 11 2 2 3.</_></rects>
      <tilted>0</tilted></_>
    <_>
      <rects>
        <_>
          10 11 3 4 -1.</_>
        <_>
          10 13 3 2 2.</_></rects>
      <tilted>0</tilted></_>
    <_>
      <rects>
        <_>
          11 1 1 12 -1.</_>
        <_>
          11 5 1 4 3.</_></rects>
      <tilted>0</tilted></_>
    <_>
      <rects>
        <_>
          11 4 1 2 -1.</_>
        <_>
          11 5 1 1 2.</_></rects>
      <tilted>0</tilted></_>
    <_>
      <rects>
        <_>
          11 4 2 5 -1.</_>
        <_>
          12 4 1 5 2.</_></rects>
      <tilted>0</tilted></_>
    <_>
      <rects>
        <_>
          11 9 2 3 -1.</_>
        <_>
          12 9 1 3 2.</_></rects>
      <tilted>0</tilted></_>
    <_>
      <rects>
        <_>
          11 10 2 3 -1.</_>
        <_>
          12 10 1 3 2.</_></rects>
      <tilted>0</tilted></_>
    <_>
      <rects>
        <_>
          12 6 2 2 -1.</_>
        <_>
          12 7 2 1 2.</_></rects>
      <tilted>0</tilted></_>
    <_>
      <rects>
        <_>
          12 6 2 3 -1.</_>
        <_>
          12 7 2 1 3.</_></rects>
      <tilted>0</tilted></_>
    <_>
      <rects>
        <_>
          13 3 1 2 -1.</_>
        <_>
          13 4 1 1 2.</_></rects>
      <tilted>0</tilted></_>
    <_>
      <rects>
        <_>
          13 4 2 3 -1.</_>
        <_>
          13 5 2 1 3.</_></rects>
      <tilted>0</tilted></_>
    <_>
      <rects>
        <_>
          13 5 4 2 -1.</_>
        <_>
          13 5 2 1 2.</_>
        <_>
          15 6 2 1 2.</_></rects>
      <tilted>0</tilted></_>
    <_>
      <rects>
        <_>
          13 6 2 2 -1.</_>
        <_>
          14 6 1 2 2.</_></rects>
      <tilted>0</tilted></_>
    <_>
      <rects>
        <_>
          13 7 2 5 -1.</_>
        <_>
          14 7 1 5 2.</_></rects>
      <tilted>0</tilted></_>
    <_>
      <rects>
        <_>
          13 9 3 3 -1.</_>
        <_>
          14 9 1 3 3.</_></rects>
      <tilted>0</tilted></_>
    <_>
      <rects>
        <_>
          14 3 2 6 -1.</_>
        <_>
          14 5 2 2 3.</_></rects>
      <tilted>0</tilted></_>
    <_>
      <rects>
        <_>
          14 4 4 2 -1.</_>
        <_>
          14 4 2 1 2.</_>
        <_>
          16 5 2 1 2.</_></rects>
      <tilted>0</tilted></_>
    <_>
      <rects>
        <_>
          14 5 2 2 -1.</_>
        <_>
          14 5 1 1 2.</_>
        <_>
          15 6 1 1 2.</_></rects>
      <tilted>0</tilted></_>
    <_>
      <rects>
        <_>
          14 6 2 4 -1.</_>
        <_>
          14 6 1 2 2.</_>
        <_>
          15 8 1 2 2.</_></rects>
      <tilted>0</tilted></_>
    <_>
      <rects>
        <_>
          14 8 3 3 -1.</_>
        <_>
          15 8 1 3 3.</_></rects>
      <tilted>0</tilted></_>
    <_>
      <rects>
        <_>
          15 4 2 4 -1.</_>
        <_>
          15 4 1 2 2.</_>
        <_>
          16 6 1 2 2.</_></rects>
      <tilted>0</tilted></_>
    <_>
      <rects>
        <_>
          15 5 4 2 -1.</_>
        <_>
          17 5 2 2 2.</_></rects>
      <tilted>0</tilted></_>
    <_>
      <rects>
        <_>
          15 6 2 2 -1.</_>
        <_>
          15 6 1 1 2.</_>
        <_>
          16 7 1 1 2.</_></rects>
      <tilted>0</tilted></_>
    <_>
      <rects>
        <_>
          15 6 3 5 -1.</_>
        <_>
          16 6 1 5 3.</_></rects>
      <tilted>0</tilted></_>
    <_>
      <rects>
        <_>
          15 6 3 7 -1.</_>
        <_>
          16 6 1 7 3.</_></rects>
      <tilted>0</tilted></_>
    <_>
      <rects>
        <_>
          16 8 3 4 -1.</_>
        <_>
          17 8 1 4 3.</_></rects>
      <tilted>0</tilted></_>
    <_>
      <rects>
        <_>
          16 9 3 2 -1.</_>
        <_>
          17 9 1 2 3.</_></rects>
      <tilted>0</tilted></_>
    <_>
      <rects>
        <_>
          16 9 2 6 -1.</_>
        <_>
          16 9 1 3 2.</_>
        <_>
          17 12 1 3 2.</_></rects>
      <tilted>0</tilted></_>
    <_>
      <rects>
        <_>
          16 13 2 4 -1.</_>
        <_>
          17 13 1 4 2.</_></rects>
      <tilted>0</tilted></_>
    <_>
      <rects>
        <_>
          17 7 3 2 -1.</_>
        <_>
          18 7 1 2 3.</_></rects>
      <tilted>0</tilted></_>
    <_>
      <rects>
        <_>
          17 10 2 4 -1.</_>
        <_>
          17 10 1 2 2.</_>
        <_>
          18 12 1 2 2.</_></rects>
      <tilted>0</tilted></_>
    <_>
      <rects>
        <_>
          18 5 2 6 -1.</_>
        <_>
          19 5 1 6 2.</_></rects>
      <tilted>0</tilted></_>
    <_>
      <rects>
        <_>
          18 7 1 4 -1.</_>
        <_>
          18 9 1 2 2.</_></rects>
      <tilted>0</tilted></_></features></cascade>
</opencv_storage>
